<?xml version="1.0"?>
<opencv_storage>
<myhaar type_id="opencv-haar-classifier">
  <size>
    24 24</size>
  <stages>
    <_>
      <trees>
        <_>
          <_>
            <feature>
              <rects>
                <_>
                  0 3 20 16 -1.</_>
                <_>
                  0 11 20 8 2.</_></rects>
              <tilted>0</tilted></feature>
            <threshold>0.0813826397061348</threshold>
            <left_val>-0.6404495835304260</left_val>
            <right_val>0.7215209007263184</right_val></_></_>
        <_>
          <_>
            <feature>
              <rects>
                <_>
                  6 12 14 12 -1.</_>
                <_>
                  6 18 14 6 2.</_></rects>
              <tilted>0</tilted></feature>
            <threshold>0.0238749906420708</threshold>
            <left_val>-0.5098795294761658</left_val>
            <right_val>0.6348972916603088</right_val></_></_>
        <_>
          <_>
            <feature>
              <rects>
                <_>
                  9 17 3 5 -1.</_>
                <_>
                  10 17 1 5 3.</_></rects>
              <tilted>0</tilted></feature>
            <threshold>4.4515260378830135e-004</threshold>
            <left_val>0.4073928892612457</left_val>
            <right_val>-0.8382558822631836</right_val></_></_>
        <_>
          <_>
            <feature>
              <rects>
                <_>
                  23 8 1 3 -1.</_>
                <_>
                  23 9 1 1 3.</_></rects>
              <tilted>0</tilted></feature>
            <threshold>1.8050529761239886e-003</threshold>
            <left_val>0.0862117633223534</left_val>
            <right_val>-0.9999992251396179</right_val></_></_>
        <_>
          <_>
            <feature>
              <rects>
                <_>
                  0 4 10 3 -1.</_>
                <_>
                  0 5 10 1 3.</_></rects>
              <tilted>0</tilted></feature>
            <threshold>-8.9222695678472519e-003</threshold>
            <left_val>-0.8957914710044861</left_val>
            <right_val>0.3597553968429565</right_val></_></_></trees>
      <stage_threshold>-0.4077391922473908</stage_threshold>
      <parent>-1</parent>
      <next>-1</next></_>
    <_>
      <trees>
        <_>
          <_>
            <feature>
              <rects>
                <_>
                  4 5 16 18 -1.</_>
                <_>
                  4 14 16 9 2.</_></rects>
              <tilted>0</tilted></feature>
            <threshold>0.2316237986087799</threshold>
            <left_val>-0.3666670918464661</left_val>
            <right_val>0.9166685938835144</right_val></_></_>
        <_>
          <_>
            <feature>
              <rects>
                <_>
                  19 16 2 2 -1.</_>
                <_>
                  19 17 2 1 2.</_></rects>
              <tilted>0</tilted></feature>
            <threshold>-5.1684211939573288e-004</threshold>
            <left_val>-0.8101189136505127</left_val>
            <right_val>0.2118303030729294</right_val></_></_>
        <_>
          <_>
            <feature>
              <rects>
                <_>
                  3 16 2 2 -1.</_>
                <_>
                  3 17 2 1 2.</_></rects>
              <tilted>0</tilted></feature>
            <threshold>-1.0895219747908413e-004</threshold>
            <left_val>-0.8379600048065186</left_val>
            <right_val>0.3146106898784638</right_val></_></_>
        <_>
          <_>
            <feature>
              <rects>
                <_>
                  13 6 2 9 -1.</_>
                <_>
                  13 6 1 9 2.</_></rects>
              <tilted>0</tilted></feature>
            <threshold>0.0196660291403532</threshold>
            <left_val>0.0295026302337646</left_val>
            <right_val>-1.0000029802322388</right_val></_></_>
        <_>
          <_>
            <feature>
              <rects>
                <_>
                  9 6 2 9 -1.</_>
                <_>
                  10 6 1 9 2.</_></rects>
              <tilted>0</tilted></feature>
            <threshold>-2.4262499064207077e-003</threshold>
            <left_val>0.7242279052734375</left_val>
            <right_val>-0.4892291128635407</right_val></_></_></trees>
      <stage_threshold>-0.2999525964260101</stage_threshold>
      <parent>0</parent>
      <next>-1</next></_>
    <_>
      <trees>
        <_>
          <_>
            <feature>
              <rects>
                <_>
                  0 4 20 14 -1.</_>
                <_>
                  0 11 20 7 2.</_></rects>
              <tilted>0</tilted></feature>
            <threshold>0.0458725988864899</threshold>
            <left_val>-0.6266667246818543</left_val>
            <right_val>0.5053774714469910</right_val></_></_>
        <_>
          <_>
            <feature>
              <rects>
                <_>
                  10 21 6 2 -1.</_>
                <_>
                  13 21 3 1 2.</_>
                <_>
                  10 22 3 1 2.</_></rects>
              <tilted>0</tilted></feature>
            <threshold>3.3508209162391722e-004</threshold>
            <left_val>0.1385872066020966</left_val>
            <right_val>-0.5427923798561096</right_val></_></_>
        <_>
          <_>
            <feature>
              <rects>
                <_>
                  8 21 6 2 -1.</_>
                <_>
                  8 21 3 1 2.</_>
                <_>
                  11 22 3 1 2.</_></rects>
              <tilted>0</tilted></feature>
            <threshold>1.0269400081597269e-004</threshold>
            <left_val>0.3931444883346558</left_val>
            <right_val>-0.8132569193840027</right_val></_></_>
        <_>
          <_>
            <feature>
              <rects>
                <_>
                  3 20 19 4 -1.</_>
                <_>
                  3 22 19 2 2.</_></rects>
              <tilted>0</tilted></feature>
            <threshold>0.0237916596233845</threshold>
            <left_val>-0.3527215123176575</left_val>
            <right_val>0.9420859217643738</right_val></_></_></trees>
      <stage_threshold>-0.5220137238502502</stage_threshold>
      <parent>1</parent>
      <next>-1</next></_>
    <_>
      <trees>
        <_>
          <_>
            <feature>
              <rects>
                <_>
                  0 11 7 10 -1.</_>
                <_>
                  0 16 7 5 2.</_></rects>
              <tilted>0</tilted></feature>
            <threshold>0.0133285298943520</threshold>
            <left_val>-0.5416669845581055</left_val>
            <right_val>0.7222239971160889</right_val></_></_>
        <_>
          <_>
            <feature>
              <rects>
                <_>
                  1 7 22 14 -1.</_>
                <_>
                  12 7 11 7 2.</_>
                <_>
                  1 14 11 7 2.</_></rects>
              <tilted>0</tilted></feature>
            <threshold>3.0831100884824991e-003</threshold>
            <left_val>0.4431780874729157</left_val>
            <right_val>-0.7097744941711426</right_val></_></_>
        <_>
          <_>
            <feature>
              <rects>
                <_>
                  3 13 2 7 -1.</_>
                <_>
                  4 13 1 7 2.</_></rects>
              <tilted>0</tilted></feature>
            <threshold>9.4401487149298191e-004</threshold>
            <left_val>-0.4946737885475159</left_val>
            <right_val>0.6461086869239807</right_val></_></_>
        <_>
          <_>
            <feature>
              <rects>
                <_>
                  4 23 16 1 -1.</_>
                <_>
                  8 23 8 1 2.</_></rects>
              <tilted>0</tilted></feature>
            <threshold>9.8731217440217733e-004</threshold>
            <left_val>0.4161922037601471</left_val>
            <right_val>-0.8080316781997681</right_val></_></_></trees>
      <stage_threshold>-0.2604118883609772</stage_threshold>
      <parent>2</parent>
      <next>-1</next></_>
    <_>
      <trees>
        <_>
          <_>
            <feature>
              <rects>
                <_>
                  10 7 3 4 -1.</_>
                <_>
                  11 7 1 4 3.</_></rects>
              <tilted>0</tilted></feature>
            <threshold>4.5369621366262436e-003</threshold>
            <left_val>-0.2960003018379211</left_val>
            <right_val>0.8604670763015747</right_val></_></_>
        <_>
          <_>
            <feature>
              <rects>
                <_>
                  9 12 6 12 -1.</_>
                <_>
                  9 18 6 6 2.</_></rects>
              <tilted>0</tilted></feature>
            <threshold>0.0108745899051428</threshold>
            <left_val>-0.5347139835357666</left_val>
            <right_val>0.5890393853187561</right_val></_></_>
        <_>
          <_>
            <feature>
              <rects>
                <_>
                  1 9 3 1 -1.</_>
                <_>
                  2 9 1 1 3.</_></rects>
              <tilted>0</tilted></feature>
            <threshold>6.6961499396711588e-004</threshold>
            <left_val>-0.4170536100864410</left_val>
            <right_val>0.6523411273956299</right_val></_></_></trees>
      <stage_threshold>-0.1783733069896698</stage_threshold>
      <parent>3</parent>
      <next>-1</next></_>
    <_>
      <trees>
        <_>
          <_>
            <feature>
              <rects>
                <_>
                  8 8 3 12 -1.</_>
                <_>
                  9 8 1 12 3.</_></rects>
              <tilted>0</tilted></feature>
            <threshold>6.6792308352887630e-003</threshold>
            <left_val>-0.3000003099441528</left_val>
            <right_val>0.7500004172325134</right_val></_></_>
        <_>
          <_>
            <feature>
              <rects>
                <_>
                  18 20 3 4 -1.</_>
                <_>
                  18 21 3 2 2.</_></rects>
              <tilted>0</tilted></feature>
            <threshold>-3.7678968510590494e-005</threshold>
            <left_val>-0.3144305944442749</left_val>
            <right_val>0.2266300022602081</right_val></_></_>
        <_>
          <_>
            <feature>
              <rects>
                <_>
                  6 23 8 1 -1.</_>
                <_>
                  8 23 4 1 2.</_></rects>
              <tilted>0</tilted></feature>
            <threshold>6.3027779106050730e-005</threshold>
            <left_val>0.3662311136722565</left_val>
            <right_val>-0.6802601814270020</right_val></_></_>
        <_>
          <_>
            <feature>
              <rects>
                <_>
                  13 2 6 4 -1.</_>
                <_>
                  13 2 6 2 2.</_></rects>
              <tilted>1</tilted></feature>
            <threshold>4.1453759185969830e-003</threshold>
            <left_val>0.2297963947057724</left_val>
            <right_val>-0.4931164085865021</right_val></_></_>
        <_>
          <_>
            <feature>
              <rects>
                <_>
                  6 5 10 3 -1.</_>
                <_>
                  11 5 5 3 2.</_></rects>
              <tilted>0</tilted></feature>
            <threshold>1.0726050240918994e-003</threshold>
            <left_val>-0.4390952885150909</left_val>
            <right_val>0.5897746086120606</right_val></_></_>
        <_>
          <_>
            <feature>
              <rects>
                <_>
                  13 0 8 1 -1.</_>
                <_>
                  15 0 4 1 2.</_></rects>
              <tilted>0</tilted></feature>
            <threshold>5.0803468184312806e-005</threshold>
            <left_val>0.3144851922988892</left_val>
            <right_val>-0.3854112923145294</right_val></_></_>
        <_>
          <_>
            <feature>
              <rects>
                <_>
                  5 14 2 1 -1.</_>
                <_>
                  5 14 1 1 2.</_></rects>
              <tilted>1</tilted></feature>
            <threshold>-3.3831889595603570e-005</threshold>
            <left_val>-0.5455144047737122</left_val>
            <right_val>0.5404691100120544</right_val></_></_></trees>
      <stage_threshold>-0.6885278224945068</stage_threshold>
      <parent>4</parent>
      <next>-1</next></_>
    <_>
      <trees>
        <_>
          <_>
            <feature>
              <rects>
                <_>
                  8 0 8 13 -1.</_>
                <_>
                  12 0 4 13 2.</_></rects>
              <tilted>0</tilted></feature>
            <threshold>3.8724699988961220e-003</threshold>
            <left_val>0.4432986080646515</left_val>
            <right_val>-0.6056349873542786</right_val></_></_>
        <_>
          <_>
            <feature>
              <rects>
                <_>
                  14 3 3 4 -1.</_>
                <_>
                  14 3 3 2 2.</_></rects>
              <tilted>1</tilted></feature>
            <threshold>-4.1615249938331544e-004</threshold>
            <left_val>0.2245384007692337</left_val>
            <right_val>-0.3068442940711975</right_val></_></_>
        <_>
          <_>
            <feature>
              <rects>
                <_>
                  10 5 4 4 -1.</_>
                <_>
                  10 5 2 2 2.</_>
                <_>
                  12 7 2 2 2.</_></rects>
              <tilted>0</tilted></feature>
            <threshold>-1.7664319602772593e-004</threshold>
            <left_val>-0.6517211794853210</left_val>
            <right_val>0.4529323875904083</right_val></_></_>
        <_>
          <_>
            <feature>
              <rects>
                <_>
                  16 3 2 6 -1.</_>
                <_>
                  16 3 2 3 2.</_></rects>
              <tilted>1</tilted></feature>
            <threshold>5.8799618855118752e-003</threshold>
            <left_val>0.1006456986069679</left_val>
            <right_val>-0.4824594855308533</right_val></_></_>
        <_>
          <_>
            <feature>
              <rects>
                <_>
                  0 12 10 5 -1.</_>
                <_>
                  5 12 5 5 2.</_></rects>
              <tilted>0</tilted></feature>
            <threshold>-0.0157994907349348</threshold>
            <left_val>-0.7356532812118530</left_val>
            <right_val>0.4473680853843689</right_val></_></_></trees>
      <stage_threshold>-0.4946384131908417</stage_threshold>
      <parent>5</parent>
      <next>-1</next></_>
    <_>
      <trees>
        <_>
          <_>
            <feature>
              <rects>
                <_>
                  2 19 4 2 -1.</_>
                <_>
                  2 20 4 1 2.</_></rects>
              <tilted>0</tilted></feature>
            <threshold>1.2318459994276054e-005</threshold>
            <left_val>-0.5164837241172791</left_val>
            <right_val>0.6103910803794861</right_val></_></_>
        <_>
          <_>
            <feature>
              <rects>
                <_>
                  15 0 4 4 -1.</_>
                <_>
                  14 1 4 2 2.</_></rects>
              <tilted>1</tilted></feature>
            <threshold>-9.1706358944065869e-005</threshold>
            <left_val>0.3840985894203186</left_val>
            <right_val>-0.5368896126747131</right_val></_></_>
        <_>
          <_>
            <feature>
              <rects>
                <_>
                  0 9 8 15 -1.</_>
                <_>
                  2 9 4 15 2.</_></rects>
              <tilted>0</tilted></feature>
            <threshold>5.7844771072268486e-003</threshold>
            <left_val>-0.6359015703201294</left_val>
            <right_val>0.6965733170509338</right_val></_></_>
        <_>
          <_>
            <feature>
              <rects>
                <_>
                  13 0 2 3 -1.</_>
                <_>
                  12 1 2 1 3.</_></rects>
              <tilted>1</tilted></feature>
            <threshold>-8.7059059296734631e-005</threshold>
            <left_val>0.5118433833122253</left_val>
            <right_val>-0.5654860138893127</right_val></_></_>
        <_>
          <_>
            <feature>
              <rects>
                <_>
                  8 0 8 24 -1.</_>
                <_>
                  8 0 4 12 2.</_>
                <_>
                  12 12 4 12 2.</_></rects>
              <tilted>0</tilted></feature>
            <threshold>6.1909478972665966e-005</threshold>
            <left_val>-0.7578758001327515</left_val>
            <right_val>0.6675922274589539</right_val></_></_>
        <_>
          <_>
            <feature>
              <rects>
                <_>
                  19 0 3 21 -1.</_>
                <_>
                  20 7 1 7 9.</_></rects>
              <tilted>0</tilted></feature>
            <threshold>0.0619444996118546</threshold>
            <left_val>-0.5963389277458191</left_val>
            <right_val>0.9012302160263062</right_val></_></_>
        <_>
          <_>
            <feature>
              <rects>
                <_>
                  5 2 3 18 -1.</_>
                <_>
                  5 8 3 6 3.</_></rects>
              <tilted>0</tilted></feature>
            <threshold>-1.8022570293396711e-004</threshold>
            <left_val>0.8627609014511108</left_val>
            <right_val>-0.9554371237754822</right_val></_></_></trees>
      <stage_threshold>-0.3089005947113037</stage_threshold>
      <parent>6</parent>
      <next>-1</next></_>
    <_>
      <trees>
        <_>
          <_>
            <feature>
              <rects>
                <_>
                  2 0 17 24 -1.</_>
                <_>
                  2 12 17 12 2.</_></rects>
              <tilted>0</tilted></feature>
            <threshold>6.6955438815057278e-003</threshold>
            <left_val>-0.8241760730743408</left_val>
            <right_val>0.9740284085273743</right_val></_></_>
        <_>
          <_>
            <feature>
              <rects>
                <_>
                  18 10 4 14 -1.</_>
                <_>
                  18 17 4 7 2.</_></rects>
              <tilted>0</tilted></feature>
            <threshold>1.2636989595193882e-005</threshold>
            <left_val>-0.9017593860626221</left_val>
            <right_val>1.</right_val></_></_>
        <_>
          <_>
            <feature>
              <rects>
                <_>
                  3 6 10 18 -1.</_>
                <_>
                  3 6 5 9 2.</_>
                <_>
                  8 15 5 9 2.</_></rects>
              <tilted>0</tilted></feature>
            <threshold>-7.7823037281632423e-004</threshold>
            <left_val>1.</left_val>
            <right_val>-1.</right_val></_></_>
        <_>
          <_>
            <feature>
              <rects>
                <_>
                  4 8 16 3 -1.</_>
                <_>
                  8 8 8 3 2.</_></rects>
              <tilted>0</tilted></feature>
            <threshold>-1.3865680375602096e-004</threshold>
            <left_val>1.</left_val>
            <right_val>-1.0000009536743164</right_val></_></_></trees>
      <stage_threshold>0.0722683668136597</stage_threshold>
      <parent>7</parent>
      <next>-1</next></_>
    <_>
      <trees>
        <_>
          <_>
            <feature>
              <rects>
                <_>
                  0 13 1 8 -1.</_>
                <_>
                  0 15 1 4 2.</_></rects>
              <tilted>0</tilted></feature>
            <threshold>-8.0018589505925775e-004</threshold>
            <left_val>-0.7599998712539673</left_val>
            <right_val>0.3220343887805939</right_val></_></_>
        <_>
          <_>
            <feature>
              <rects>
                <_>
                  17 2 3 6 -1.</_>
                <_>
                  15 4 3 2 3.</_></rects>
              <tilted>1</tilted></feature>
            <threshold>-6.1631030403077602e-003</threshold>
            <left_val>0.1409150063991547</left_val>
            <right_val>-0.1436160057783127</right_val></_></_>
        <_>
          <_>
            <feature>
              <rects>
                <_>
                  7 2 6 3 -1.</_>
                <_>
                  9 4 2 3 3.</_></rects>
              <tilted>1</tilted></feature>
            <threshold>-6.6878451034426689e-003</threshold>
            <left_val>0.5908687114715576</left_val>
            <right_val>-0.4406248033046722</right_val></_></_>
        <_>
          <_>
            <feature>
              <rects>
                <_>
                  22 9 2 2 -1.</_>
                <_>
                  22 10 2 1 2.</_></rects>
              <tilted>0</tilted></feature>
            <threshold>-1.3117550406605005e-004</threshold>
            <left_val>-0.3284546136856079</left_val>
            <right_val>0.3588458895683289</right_val></_></_>
        <_>
          <_>
            <feature>
              <rects>
                <_>
                  3 0 6 9 -1.</_>
                <_>
                  5 3 2 3 9.</_></rects>
              <tilted>0</tilted></feature>
            <threshold>-0.0107400398701429</threshold>
            <left_val>0.6254385113716126</left_val>
            <right_val>-0.4834904968738556</right_val></_></_></trees>
      <stage_threshold>-0.3868510127067566</stage_threshold>
      <parent>8</parent>
      <next>-1</next></_>
    <_>
      <trees>
        <_>
          <_>
            <feature>
              <rects>
                <_>
                  0 9 2 11 -1.</_>
                <_>
                  1 9 1 11 2.</_></rects>
              <tilted>0</tilted></feature>
            <threshold>-6.2498729676008224e-003</threshold>
            <left_val>0.9459459185600281</left_val>
            <right_val>-0.2671757042407990</right_val></_></_>
        <_>
          <_>
            <feature>
              <rects>
                <_>
                  5 3 16 3 -1.</_>
                <_>
                  5 4 16 1 3.</_></rects>
              <tilted>0</tilted></feature>
            <threshold>-2.4224400112871081e-004</threshold>
            <left_val>-0.4945637881755829</left_val>
            <right_val>0.4486047029495239</right_val></_></_>
        <_>
          <_>
            <feature>
              <rects>
                <_>
                  2 21 6 1 -1.</_>
                <_>
                  4 21 2 1 3.</_></rects>
              <tilted>0</tilted></feature>
            <threshold>3.6393799819052219e-003</threshold>
            <left_val>-0.3212206959724426</left_val>
            <right_val>0.9704949259757996</right_val></_></_></trees>
      <stage_threshold>-0.1397916972637177</stage_threshold>
      <parent>9</parent>
      <next>-1</next></_>
    <_>
      <trees>
        <_>
          <_>
            <feature>
              <rects>
                <_>
                  3 4 17 3 -1.</_>
                <_>
                  3 5 17 1 3.</_></rects>
              <tilted>0</tilted></feature>
            <threshold>3.7942810449749231e-003</threshold>
            <left_val>0.2537311911582947</left_val>
            <right_val>-1.0000050067901611</right_val></_></_>
        <_>
          <_>
            <feature>
              <rects>
                <_>
                  15 14 4 3 -1.</_>
                <_>
                  16 14 2 3 2.</_></rects>
              <tilted>0</tilted></feature>
            <threshold>-2.6832988951355219e-003</threshold>
            <left_val>0.3867990076541901</left_val>
            <right_val>-0.1812276989221573</right_val></_></_>
        <_>
          <_>
            <feature>
              <rects>
                <_>
                  7 15 6 3 -1.</_>
                <_>
                  6 16 6 1 3.</_></rects>
              <tilted>1</tilted></feature>
            <threshold>4.4048861600458622e-003</threshold>
            <left_val>0.2427995055913925</left_val>
            <right_val>-0.9999973773956299</right_val></_></_></trees>
      <stage_threshold>0.3153030872344971</stage_threshold>
      <parent>10</parent>
      <next>-1</next></_>
    <_>
      <trees>
        <_>
          <_>
            <feature>
              <rects>
                <_>
                  3 23 8 1 -1.</_>
                <_>
                  7 23 4 1 2.</_></rects>
              <tilted>0</tilted></feature>
            <threshold>-1.1840600054711103e-003</threshold>
            <left_val>-0.7288135290145874</left_val>
            <right_val>0.3944959938526154</right_val></_></_>
        <_>
          <_>
            <feature>
              <rects>
                <_>
                  12 2 2 4 -1.</_>
                <_>
                  12 2 1 4 2.</_></rects>
              <tilted>1</tilted></feature>
            <threshold>-0.0106571996584535</threshold>
            <left_val>0.8371425867080689</left_val>
            <right_val>-0.1210642978549004</right_val></_></_>
        <_>
          <_>
            <feature>
              <rects>
                <_>
                  9 0 3 12 -1.</_>
                <_>
                  10 4 1 4 9.</_></rects>
              <tilted>0</tilted></feature>
            <threshold>-0.0113697396591306</threshold>
            <left_val>0.5898715853691101</left_val>
            <right_val>-0.4538772106170654</right_val></_></_>
        <_>
          <_>
            <feature>
              <rects>
                <_>
                  10 0 6 1 -1.</_>
                <_>
                  12 0 2 1 3.</_></rects>
              <tilted>0</tilted></feature>
            <threshold>-8.0201431410387158e-004</threshold>
            <left_val>-0.4357638955116272</left_val>
            <right_val>0.1715354025363922</right_val></_></_></trees>
      <stage_threshold>-0.6162093877792358</stage_threshold>
      <parent>11</parent>
      <next>-1</next></_>
    <_>
      <trees>
        <_>
          <_>
            <feature>
              <rects>
                <_>
                  10 1 2 7 -1.</_>
                <_>
                  11 1 1 7 2.</_></rects>
              <tilted>0</tilted></feature>
            <threshold>3.2272899989038706e-003</threshold>
            <left_val>-0.2671759128570557</left_val>
            <right_val>0.9459481835365295</right_val></_></_>
        <_>
          <_>
            <feature>
              <rects>
                <_>
                  23 3 1 20 -1.</_>
                <_>
                  23 13 1 10 2.</_></rects>
              <tilted>0</tilted></feature>
            <threshold>0.0193704906851053</threshold>
            <left_val>0.3627581894397736</left_val>
            <right_val>-0.9505336284637451</right_val></_></_>
        <_>
          <_>
            <feature>
              <rects>
                <_>
                  5 1 6 6 -1.</_>
                <_>
                  7 3 2 2 9.</_></rects>
              <tilted>0</tilted></feature>
            <threshold>-0.0164615400135517</threshold>
            <left_val>0.8558499217033386</left_val>
            <right_val>-0.3511886000633240</right_val></_></_>
        <_>
          <_>
            <feature>
              <rects>
                <_>
                  10 0 14 1 -1.</_>
                <_>
                  10 0 7 1 2.</_></rects>
              <tilted>0</tilted></feature>
            <threshold>4.4227722100913525e-003</threshold>
            <left_val>0.2345173060894013</left_val>
            <right_val>-0.9701800942420960</right_val></_></_></trees>
      <stage_threshold>-0.1212567016482353</stage_threshold>
      <parent>12</parent>
      <next>-1</next></_>
    <_>
      <trees>
        <_>
          <_>
            <feature>
              <rects>
                <_>
                  0 7 22 6 -1.</_>
                <_>
                  11 7 11 6 2.</_></rects>
              <tilted>0</tilted></feature>
            <threshold>0.0444315485656261</threshold>
            <left_val>0.4901958107948303</left_val>
            <right_val>-0.7575780153274536</right_val></_></_>
        <_>
          <_>
            <feature>
              <rects>
                <_>
                  16 8 3 1 -1.</_>
                <_>
                  17 8 1 1 3.</_></rects>
              <tilted>0</tilted></feature>
            <threshold>1.6621509566903114e-003</threshold>
            <left_val>-0.1708059012889862</left_val>
            <right_val>0.8315457105636597</right_val></_></_>
        <_>
          <_>
            <feature>
              <rects>
                <_>
                  5 8 3 1 -1.</_>
                <_>
                  6 8 1 1 3.</_></rects>
              <tilted>0</tilted></feature>
            <threshold>2.3139480617828667e-004</threshold>
            <left_val>-0.3700307011604309</left_val>
            <right_val>0.7074561715126038</right_val></_></_></trees>
      <stage_threshold>-0.2209278047084808</stage_threshold>
      <parent>13</parent>
      <next>-1</next></_></stages></myhaar>
</opencv_storage>
